{
  "grazer": [
    {
      "entity_id": 102606,
      "fitness": 2554.3652,
      "children": 24,
      "kills": 0,
      "survival_sec": 19549.252,
      "foraging": 527.44,
      "clade_id": 102606,
      "founder_archetype": "grazer",
      "diet": 0,
      "brain": {
        "layers": [
          28,
          16,
          8,
          3
        ],
        "weights": [
          [
            0.0098033175,
            -0.6191722,
            0.10657692,
            0.7691933,
            -0.19776128,
            0.19882125,
            0.30028245,
            -0.065629974,
            0.5235797,
            0.32685685,
            0.4760552,
            0.20512748,
            -0.31847918,
            -0.06095044,
            -0.07988712,
            0.44771785,
            0.33811796,
            -0.3192592,
            -0.04544503,
            0.09463998,
            -0.5720055,
            -0.09254162,
            -0.5352544,
            0.10487025,
            0.17241576,
            0.041890346,
            -0.42167437,
            0.34272113,
            0.28218636,
            -0.19743441,
            -0.6015085,
            0.6299883,
            0.29849663,
            0.10752481,
            -0.22595307,
            -0.065633096,
            -0.32781583,
            0.17518885,
            0.39712378,
            0.049246684,
            0.14257872,
            0.021595433,
            0.4427033,
            -0.050047684,
            0.1733688,
            -0.48162487,
            0.417683,
            -0.33074498,
            -0.2586702,
            -0.23837592,
            0.3685625,
            0.02786094,
            0.044445492,
            -0.25653172,
            -0.75152934,
            -0.40307587,
            0.10239379,
            -0.20106623,
            0.258769,
            -0.030058518,
            0.23133439,
            -0.11308738,
            -0.22021683,
            -0.049050175,
            -0.3115011,
            0.02703733,
            0.40869612,
            0.004648298,
            -0.14283359,
            0.5536722,
            -0.51682144,
            -0.21158442,
            0.12000177,
            0.17732963,
            0.10009906,
            0.16064614,
            0.37539005,
            0.08336825,
            -0.20103002,
            0.23930183,
            -0.31021833,
            0.15744369,
            -0.46615216,
            0.34313026,
            -0.19113773,
            -0.7540231,
            0.63635796,
            0.36585698,
            -0.1680398,
            -0.25291064,
            0.1440492,
            0.58325493,
            0.18008304,
            -0.02171255,
            -0.59926414,
            -0.046701204,
            0.16343121,
            0.018269,
            -0.06098908,
            -0.17650932,
            -0.027039416,
            -0.24456921,
            0.24327376,
            0.14923662,
            0.11025289,
            -0.4357779,
            -0.048606597,
            0.7476498,
            -0.022079837,
            -0.19532163,
            0.20625436,
            0.17697388,
            -0.18128684,
            -0.16703881,
            0.35210782,
            -0.07392599,
            -0.3921017,
            -0.10611815,
            -0.12975003,
            -0.606686,
            -0.06784082,
            -0.119286396,
            0.5286096,
            0.41508383,
            0.60890275,
            0.0015288955,
            -0.5305524,
            0.6645083,
            0.29991087,
            0.1910364,
            0.07921059,
            -0.4548471,
            -0.45664304,
            -0.039894886,
            0.0052453205,
            0.23029087,
            -0.3125522,
            0.087556034,
            0.46083474,
            -0.046073034,
            -0.17642607,
            -0.8125035,
            -0.167748,
            0.51556206,
            0.5138937,
            -0.20156878,
            -0.015389875,
            -0.16966036,
            0.55186206,
            -0.036561623,
            -0.3541996,
            0.15981002,
            0.2625232,
            -0.22523098,
            0.12178209,
            -0.7467011,
            -0.099644884,
            -0.10126931,
            0.08386123,
            -0.24059668,
            -0.22057734,
            -0.20418489,
            -0.57487977,
            -0.11313599,
            0.1902156,
            0.307295,
            0.23431852,
            0.029619887,
            -0.018336084,
            -0.5119074,
            -0.4222022,
            0.057233594,
            0.29693612,
            0.32737738,
            0.012660876,
            0.29140678,
            -0.22459462,
            0.28360426,
            -0.12729558,
            -0.4460853,
            0.7348405,
            0.24150553,
            -0.40771118,
            1.315588,
            -0.29945326,
            0.02747782,
            0.20993559,
            -0.08976712,
            0.1893712,
            -0.12626638,
            -0.09999138,
            -0.79076856,
            0.17144929,
            -0.015783284,
            -0.10332932,
            0.07049726,
            0.17057948,
            0.103490844,
            0.5522527,
            -0.09327875,
            -0.07877694,
            -0.36540172,
            0.09233513,
            0.11143299,
            0.4131726,
            -0.37251616,
            0.09138832,
            -0.24515022,
            -0.8717155,
            0.26302224,
            0.32916683,
            -0.22667083,
            -0.55050665,
            -0.5573521,
            -0.08970501,
            -0.042103875,
            -0.195425,
            -0.035653777,
            -0.17589185,
            0.18994313,
            -0.42669213,
            -0.57604724,
            0.5255716,
            0.39196765,
            0.4287406,
            0.6006378,
            0.5813595,
            -0.32658798,
            0.426159,
            0.02163456,
            -0.004814565,
            0.25745547,
            -0.08667229,
            -0.035983413,
            0.37465477,
            0.22207877,
            -0.31191623,
            -0.05751552,
            -0.2954717,
            0.30704898,
            -0.08057265,
            0.3047287,
            -0.33907348,
            0.27352583,
            -0.64395505,
            -0.59757227,
            -0.242966,
            -0.18636928,
            0.19541739,
            0.27008095,
            -0.38297722,
            0.43348008,
            -0.023547605,
            -0.19884607,
            -0.08061367,
            -0.15072039,
            -0.082607925,
            -0.7263192,
            0.26297674,
            -0.121024296,
            0.14086299,
            -0.41205183,
            0.10120718,
            -0.20341662,
            -0.07371177,
            0.15358987,
            0.121631265,
            0.5329854,
            -0.099518895,
            0.05266691,
            -0.101311564,
            0.31362236,
            0.34231192,
            -0.574641,
            -0.009257282,
            -0.00041209906,
            -0.12357667,
            0.30316916,
            -0.38407046,
            -0.27271593,
            -0.16676122,
            0.25780335,
            -0.4586987,
            0.53692216,
            0.14108449,
            0.36617592,
            -0.8583005,
            -0.044512495,
            -0.10513112,
            0.21877855,
            -0.405115,
            0.033486515,
            0.2874045,
            -0.34902364,
            -0.2886437,
            0.23328009,
            0.40383014,
            0.5404209,
            0.7183508,
            -0.08819782,
            -0.06394451,
            -0.036708616,
            0.10307957,
            -0.00804019,
            -0.100045815,
            -0.16973627,
            0.46994513,
            0.36153027,
            -0.24587335,
            0.35734808,
            0.09153106,
            0.8733468,
            0.27916116,
            0.32741374,
            0.41177773,
            0.1355814,
            0.06607774,
            0.19691965,
            -0.84505516,
            -0.07805263,
            -0.035357207,
            0.38658857,
            0.62024647,
            0.5275512,
            0.14253817,
            -0.6367134,
            0.17011942,
            -0.47986668,
            0.6162965,
            0.21441641,
            0.048313726,
            -0.48262686,
            0.27152598,
            -0.042104915,
            0.19688351,
            -0.5641513,
            0.056084126,
            0.004284635,
            0.2654151,
            -0.26012537,
            0.49110317,
            0.31564057,
            -0.22031894,
            -0.24986996,
            0.12595639,
            0.5130216,
            0.7014708,
            0.12072366,
            0.14374347,
            0.058883693,
            0.6026424,
            0.56391513,
            -0.21850064,
            0.21169138,
            -0.034696877,
            -0.43814558,
            0.50341785,
            0.1051278,
            -0.37092358,
            -0.09278691,
            -0.094873026,
            -0.12622903,
            -0.5456123,
            -0.016756706,
            0.3802297,
            0.3440085,
            -0.4013673,
            -0.32985476,
            0.13673384,
            0.04595033,
            0.5528612,
            0.11641948,
            -0.00785026,
            0.02056191,
            0.00897561,
            -0.47073007,
            -0.166311,
            -0.13749813,
            0.12410917,
            0.18228734,
            -0.47351134,
            0.11140019,
            -0.20708828,
            -0.08825934,
            -0.28372005,
            0.012348194,
            -0.0940102,
            0.4973036,
            -0.36786023,
            0.112742975,
            -0.13699843,
            0.06607552,
            0.12383598,
            -0.2641207,
            -0.12229985,
            -0.33650583,
            0.04146199,
            -0.47833768,
            -0.09760715,
            -0.15045786,
            0.32449695,
            0.31786504,
            -0.051236503,
            0.11709569,
            -0.55578136,
            0.27219468,
            0.57464606,
            -0.2828825,
            0.052948676,
            0.112958595,
            0.14397447,
            0.16703317,
            0.5642028,
            -0.08268908,
            0.1554231,
            0.5102743,
            0.6456714,
            -0.5664504,
            -0.26575813,
            -0.05381334,
            0.025852174,
            -0.3809743,
            0.21798831,
            0.20210707,
            0.35008803,
            -0.11798124,
            -0.010464046,
            -0.080136225,
            -0.018897697,
            0.6546342,
            0.05554189,
            -0.35117236,
            0.11562247,
            -0.5318953,
            -0.022085113,
            0.29374933,
            0.098029695,
            0.099015996,
            -0.3781854,
            -0.14427923,
            0.10994164,
            0.12244082,
            0.22988412,
            -0.20183615,
            0.15555768,
            -0.0782706,
            0.3496667,
            0.1908369
          ],
          [
            0.009237735,
            -0.102925256,
            -0.07805368,
            0.13648163,
            -0.37907413,
            0.0740955,
            0.34780887,
            0.3605806,
            -0.057920232,
            0.47435898,
            0.22160736,
            -0.23108189,
            0.26991415,
            0.7971336,
            0.21665439,
            0.34102947,
            -0.14819905,
            0.085571945,
            -0.034285802,
            0.44416863,
            -0.31285265,
            -0.35173336,
            0.38572922,
            0.37512544,
            0.10823068,
            0.04183099,
            0.10797438,
            -0.22683844,
            0.17660445,
            0.7732284,
            1.0150613,
            0.79330325,
            -0.18455857,
            -0.02220022,
            -0.25871468,
            -0.20640847,
            -0.1539332,
            -0.15166615,
            0.1970385,
            0.28971198,
            -0.17429525,
            -0.116344765,
            0.62963843,
            0.75059354,
            0.49329358,
            -0.37173834,
            -0.33592805,
            -0.60646164,
            -0.18445598,
            0.025419215,
            -0.09049937,
            -0.38858268,
            -0.07989064,
            -0.036034703,
            0.41504726,
            -0.41999164,
            0.4981351,
            0.05055101,
            0.28273776,
            -0.67099607,
            0.061483517,
            -0.22950485,
            -0.038191438,
            0.41913807,
            0.45312223,
            -0.028435774,
            -0.18800405,
            -0.3789295,
            0.15656993,
            -0.39076677,
            0.126448,
            0.053118587,
            -0.3134536,
            -0.1644684,
            0.4110777,
            -0.043903023,
            0.5056104,
            -0.4948725,
            -0.06941417,
            0.12646191,
            0.0164053,
            0.076100595,
            0.09362859,
            -0.5692543,
            0.3822792,
            -0.35287625,
            -0.17077258,
            -0.66659886,
            0.4799594,
            -0.11896845,
            0.8085902,
            0.08915855,
            -0.27708304,
            -0.3596439,
            0.21094741,
            -0.15444556,
            -0.40855798,
            0.080618456,
            0.012754701,
            0.8360004,
            -0.09855475,
            -0.52728873,
            -0.1962513,
            0.22100414,
            0.6559375,
            0.16229841,
            0.20289475,
            0.26094663,
            -0.4028378,
            -0.04816034,
            0.17735037,
            -0.6947493,
            0.78654045,
            -0.323268,
            0.67332375,
            -0.041984282,
            0.70568043,
            -0.5174564,
            0.07504911,
            -0.2808041,
            -0.44500464,
            -0.23728682,
            -0.19424054,
            0.292739,
            0.29477662,
            0.6316443,
            -0.6951662,
            -0.10738239
          ],
          [
            -0.13543117,
            0.42628822,
            -0.07458314,
            0.59930295,
            1.2684484,
            0.47871625,
            -0.779246,
            0.33945698,
            0.039375763,
            1.0299885,
            -0.19647752,
            -0.06508372,
            0.8850811,
            -0.13381933,
            -0.37299964,
            0.25860518,
            -0.34129393,
            -0.18233764,
            -0.559462,
            -0.7289182,
            0.7045409,
            0.26159406,
            -0.2978496,
            -0.2851356
          ]
        ],
        "biases": [
          [
            -0.050043564,
            0,
            -0.077541575,
            0.020130407,
            0.08814478,
            0.097925946,
            0.015776806,
            0.15925828,
            -0.31268385,
            -0.036096223,
            0.04795853,
            0.041328922,
            -0.04738193,
            -0.034750838,
            0.14326127,
            0.07934499
          ],
          [
            0.35120794,
            -0.15199278,
            -0.1739144,
            0,
            -0.06272083,
            -0.108432174,
            -0.28956383,
            0.06784224
          ],
          [
            -0.22719032,
            -0.19305554,
            -2
          ]
        ]
      }
    },
    {
      "entity_id": 103502,
      "fitness": 2188.6763,
      "children": 19,
      "kills": 0,
      "survival_sec": 16215.067,
      "foraging": 510.16946,
      "clade_id": 103502,
      "founder_archetype": "grazer",
      "diet": 0.005142131,
      "brain": {
        "layers": [
          28,
          16,
          8,
          3
        ],
        "weights": [
          [
            0.1438356,
            -0.72298265,
            0.2205418,
            0.3652009,
            -0.34242988,
            0.29060006,
            0.82717997,
            -0.33685547,
            0.3668613,
            0.40118235,
            0.3137922,
            0.34906334,
            -0.031654887,
            -0.2611818,
            -0.039322548,
            0.23740405,
            0.40526867,
            -0.3362463,
            -0.27604052,
            -0.06273032,
            -0.36379713,
            -0.24485087,
            -0.69965845,
            -0.09994257,
            0.09680231,
            0.35553858,
            -0.4839959,
            0.30085814,
            0.24843554,
            -0.2550941,
            -0.074843206,
            0.51056683,
            -0.0006134808,
            -0.103749156,
            -0.3980726,
            0.4934814,
            -0.12425753,
            -0.347715,
            0.33338875,
            0.04019129,
            -0.3063975,
            0.17602462,
            0.32741755,
            0.07290675,
            0.5041729,
            -0.6171912,
            0.51075876,
            -0.396654,
            -0.475393,
            -0.18376875,
            0.14347011,
            -0.037136503,
            0.15393196,
            -0.35233274,
            0.11845234,
            -0.14097583,
            -0.5881003,
            -0.019946398,
            0.35478345,
            -0.43019757,
            0.4778853,
            0.114009865,
            0.049826175,
            -0.44470996,
            -0.15005279,
            -0.06184125,
            0.2348305,
            -0.3884301,
            -0.0067781582,
            0.75663066,
            -0.35887128,
            -0.14401329,
            0.0056419224,
            0.09699348,
            0.33401346,
            -0.053968668,
            0.1420098,
            -0.153072,
            0.022060137,
            0.327924,
            -0.42500034,
            0.080289185,
            -0.5728769,
            0.09218477,
            0.12658677,
            -0.69727933,
            -0.25832558,
            0.1273238,
            -0.045969576,
            -0.007982783,
            0.13159557,
            0.26527083,
            0.1404504,
            0.21845692,
            -0.35840672,
            -0.05143535,
            0.2624487,
            0.08115846,
            0.19860278,
            -0.11802628,
            -0.15196514,
            -0.42029592,
            0.2914239,
            0.2721122,
            -0.22143215,
            -0.2601468,
            -0.12069877,
            0.50676286,
            -0.19290349,
            -0.06591703,
            0.09485064,
            -0.49501416,
            0.3330204,
            -0.47127184,
            0.14665277,
            -0.22012243,
            -0.189764,
            0.30623382,
            0.39126098,
            0.15137859,
            -0.3885057,
            -0.3153493,
            0.29387036,
            0.5307209,
            0.59704995,
            -0.12318602,
            -0.16599844,
            0.23914006,
            0.2297811,
            0.2612594,
            0.0871778,
            -0.6273598,
            -0.603342,
            -0.052193996,
            0.15629758,
            0.20985779,
            -0.42248395,
            -0.01168466,
            0.7494936,
            -0.06895255,
            0.14280984,
            -0.4837434,
            0.08042461,
            0.9897456,
            0.35108167,
            -0.07352363,
            -0.28228825,
            -0.19259357,
            0.13764773,
            0.1506672,
            0.07075689,
            -0.10185061,
            0.28592095,
            -0.17183352,
            0.20908837,
            -0.5812071,
            -0.22201261,
            -0.43648118,
            -0.037865546,
            -0.19492067,
            -0.10123699,
            -0.28331247,
            -0.035923574,
            -0.22110318,
            0.50587356,
            0.21972443,
            0.18145359,
            -0.31735775,
            0.037458897,
            -0.01873831,
            -0.74289685,
            0.32348427,
            0.65963286,
            0.20458013,
            -0.0069361813,
            0.12827906,
            0.12483785,
            0.65373677,
            -0.05196896,
            -0.36463752,
            0.61297876,
            0.48885563,
            -0.18014473,
            1.2839594,
            -0.20349042,
            0.03971172,
            0.36407337,
            -0.32592407,
            0.15429297,
            -0.3403598,
            -0.10584934,
            0.04163844,
            0.27106,
            0.040800046,
            0.13470565,
            -0.018123463,
            0.0826492,
            0.39669758,
            0.31367955,
            -0.42121023,
            0.10810173,
            -0.6499924,
            -0.13918856,
            0.09558234,
            0.49818406,
            -0.17968062,
            0.23042989,
            -0.22314465,
            -0.51675946,
            0.40524766,
            0.6215624,
            -0.24030252,
            -0.65702575,
            -0.472459,
            -0.27447733,
            -0.07802065,
            -0.18987507,
            0.00884828,
            0.14946881,
            0.29316646,
            -0.37182194,
            -0.108075365,
            0.6667337,
            0.5672794,
            0.23955563,
            0.2734427,
            0.56522906,
            -0.07101023,
            0.084358804,
            0.22882706,
            -0.17115214,
            -0.015254945,
            0.14515217,
            0.11368859,
            0.14019181,
            0.14259982,
            -0.50022626,
            -0.1762799,
            0.06051741,
            0.17133309,
            -0.3160933,
            0.36173317,
            -0.3474136,
            0.056568414,
            -0.34264588,
            -0.29790887,
            0.327436,
            -0.07356,
            0.11582627,
            0.42039204,
            -0.35161233,
            0.030912612,
            -0.12678014,
            0.43731275,
            -0.52998227,
            0.21711166,
            -0.67980295,
            -0.4949485,
            0.4732715,
            -0.23939188,
            0.050750695,
            -0.39819977,
            -0.0356721,
            0.023838017,
            0.11958185,
            0.32346287,
            0.296961,
            0.2365623,
            -0.027878001,
            -0.053284854,
            -0.024066998,
            0.36928505,
            0.39079523,
            -0.46218184,
            0.16246392,
            0.08998545,
            0.100576356,
            0.009096891,
            -0.34490496,
            -0.57511806,
            0.22846702,
            0.033334985,
            -0.29166427,
            0.37844497,
            0.23587342,
            0.15119581,
            -0.6837996,
            -0.054795302,
            -0.46378055,
            0.23623385,
            -0.23268859,
            0.018113188,
            0.2785583,
            -0.09626793,
            -0.28504896,
            0.056703504,
            0.47618946,
            0.7068839,
            -0.07491592,
            0.20117834,
            -0.0031257942,
            -0.31007132,
            0.24306606,
            0.18367907,
            -0.29370332,
            -0.13993075,
            0.1742698,
            0.42041725,
            -0.2666595,
            0.20657746,
            -0.021177234,
            0.2335679,
            0.14403196,
            0.35126022,
            0.45754027,
            0.19353297,
            0.3601632,
            0.4511534,
            -0.69627064,
            -0.20313984,
            -0.025425367,
            0.07309754,
            0.7432001,
            0.25861338,
            0.003850054,
            -0.31331444,
            0.2801782,
            -0.36918393,
            0.52081734,
            0.1689228,
            -0.053519808,
            -0.4109965,
            -0.14497495,
            -0.12895757,
            -0.12930065,
            -0.40390277,
            0.10249074,
            -0.0526515,
            0.22012927,
            -0.39690495,
            0.48406106,
            -0.17738637,
            -0.10504674,
            -0.17707056,
            0.23142496,
            -0.16342956,
            0.4338433,
            0.049811002,
            0.102592625,
            -0.0065799765,
            0.9691068,
            0.056965046,
            0.25410357,
            0.046361625,
            0.288459,
            -0.40467653,
            0.44331378,
            0.035232294,
            -0.7953895,
            0.3234387,
            -0.17023921,
            -0.113537475,
            -0.60247195,
            -0.183406,
            0.031801403,
            -0.289712,
            0.33249342,
            -0.050962206,
            -0.22893283,
            -0.04318466,
            0.3946811,
            0.25300017,
            0.047997177,
            -0.48887783,
            0.15519112,
            0.01618924,
            -0.007738292,
            0.17387229,
            0.15888695,
            -0.050878137,
            0.032630943,
            -0.105348945,
            -0.29476902,
            0.051784337,
            0.34261197,
            0.018359445,
            -0.17078407,
            0.073093206,
            -0.5288443,
            0.33029902,
            -0.3675868,
            0.26769814,
            -0.1204324,
            0.2127851,
            -0.22058775,
            -0.24523686,
            0.06742792,
            -0.15282139,
            0.08797675,
            0.028688006,
            -0.025579102,
            0.2724131,
            0.0064257793,
            0.2580515,
            -0.4752989,
            0.17706797,
            0.6269518,
            -0.02318155,
            0.4075913,
            0.09995373,
            0.08801048,
            0.24206582,
            0.94708157,
            0.4204097,
            -0.07236305,
            -0.082992986,
            0.5806696,
            0.19756998,
            -0.32752502,
            0.1966367,
            0.45770532,
            -0.3025124,
            0.22146787,
            0.059903577,
            0.33118427,
            0.11782306,
            -0.20141181,
            -0.04808238,
            -0.069612645,
            0.114639536,
            0.2507693,
            0.121288925,
            -0.2792287,
            -0.6582352,
            0.066168696,
            0.110478245,
            0.4878553,
            0.22651474,
            -0.729623,
            0.12470783,
            0.2865914,
            0.23594752,
            0.03205011,
            0.943997,
            -0.10623875,
            -0.035784464,
            0.6335028,
            -0.03563209
          ],
          [
            0.008486651,
            -0.045987606,
            -0.09148954,
            -0.07051842,
            -0.24516784,
            0.4505614,
            0.07856965,
            0.27640975,
            -0.22506867,
            0.047660254,
            -0.21312521,
            0.19292343,
            -0.23800223,
            -0.533514,
            -0.26873457,
            0.6437807,
            -0.12081161,
            -0.037759244,
            -0.19797045,
            0.4793728,
            -0.32239148,
            -0.50000644,
            0.8662994,
            0.38880077,
            0.40842444,
            0.1223773,
            0.16982976,
            -0.42949858,
            0.024462067,
            0.50001395,
            0.5460174,
            0.5435654,
            0.52506256,
            0.20230271,
            1.162456,
            0.16415149,
            -0.36067528,
            0.06645991,
            0.30756763,
            0.38028568,
            -0.21670558,
            -0.097008094,
            0.64956367,
            0.31259876,
            0.5426803,
            -0.5121143,
            -0.2857839,
            -0.4819555,
            -0.025426984,
            -0.3374368,
            -0.3312951,
            -0.26311257,
            -0.11735971,
            -0.013979569,
            1.098276,
            -0.11842638,
            0.78354996,
            0.48261338,
            0.4450393,
            -0.24442682,
            0.43964157,
            -0.14570934,
            -0.22383516,
            0.5547712,
            0.5975984,
            -0.29817912,
            -0.67933327,
            -0.50720227,
            0.10341448,
            -0.43732524,
            0.10778521,
            -0.105192766,
            -0.6137888,
            -0.55052394,
            0.13079889,
            -0.2759614,
            0.21203206,
            -0.7504644,
            -0.056730296,
            0.29120028,
            -0.21567893,
            0.1189385,
            0.13217719,
            -0.49440974,
            0.15334901,
            -0.1303978,
            -0.26151672,
            -0.5335787,
            0.75128365,
            -0.028291516,
            0.7665444,
            0.23278044,
            -0.68011844,
            -0.53690064,
            0.11957532,
            -0.335707,
            -0.62745184,
            0.23467377,
            0.19429237,
            -0.54723483,
            -0.5330493,
            0.064555034,
            -0.38545793,
            0.7616934,
            0.24404535,
            0.028373612,
            0.47493538,
            0.3740323,
            -0.36493185,
            -0.3354165,
            0.5854389,
            -0.4983292,
            0.3307695,
            -0.33859757,
            0.10725346,
            0.21960191,
            0.7685804,
            -0.5443921,
            -0.15077765,
            -0.71682775,
            -0.26061764,
            -0.5976132,
            -0.45078018,
            0.09581978,
            -0.09379967,
            -0.051227227,
            -0.3193721,
            -0.12012587
          ],
          [
            -0.30034408,
            -0.63060164,
            -0.56119394,
            0.637455,
            1.3367206,
            0.12959458,
            -1.1724013,
            0.63821197,
            0.040495917,
            0.6157235,
            0.24676427,
            0.24912004,
            0.8645375,
            -0.1864449,
            -0.3432504,
            0.3984137,
            0.041404404,
            0.014924377,
            -0.25558373,
            -0.76479876,
            0.33485946,
            0.33427554,
            -0.35600358,
            -0.6021815
          ]
        ],
        "biases": [
          [
            0.123692974,
            -0.066480905,
            -0.0028035939,
            -0.04413157,
            -0.082824126,
            0.22387174,
            -0.02221831,
            0.011395061,
            -0.00072530843,
            0.08244527,
            0.0653256,
            -0.032007363,
            -0.11909468,
            0.052432556,
            0,
            -0.28578785
          ],
          [
            0.11493519,
            0.079465345,
            0.060606517,
            -0.075086,
            0.2554888,
            0.031992484,
            0.08464533,
            -0.010913808
          ],
          [
            -0.13475308,
            -0.03710086,
            -1.8778265
          ]
        ]
      }
    },
    {
      "entity_id": 84923,
      "fitness": 2169.302,
      "children": 25,
      "kills": 0,
      "survival_sec": 16622.701,
      "foraging": 432.03177,
      "clade_id": 84923,
      "founder_archetype": "grazer",
      "diet": 0.002188642,
      "brain": {
        "layers": [
          28,
          16,
          8,
          3
        ],
        "weights": [
          [
            0.08298526,
            -0.77244055,
            0.0573579,
            0.76535344,
            -0.19776128,
            0.23594882,
            0.3368763,
            -0.065629974,
            0.5235797,
            0.3545943,
            0.2561653,
            0.20512748,
            -0.3950493,
            -0.06095044,
            -0.07988712,
            0.364822,
            0.33811796,
            -0.31661466,
            -0.081450276,
            0.082862735,
            -0.38639235,
            -0.114273176,
            -0.6257201,
            0.028549116,
            0.22544758,
            0.041890346,
            -0.4106276,
            0.22671384,
            0.14491403,
            -0.19743441,
            -0.47357473,
            0.8112794,
            0.1505577,
            0.10752481,
            -0.25517386,
            -0.065633096,
            -0.24686217,
            0.17518885,
            0.34797096,
            0.08673245,
            -0.16676751,
            0.28832358,
            0.47369793,
            0.0050072074,
            0.1733688,
            -0.48162487,
            0.417683,
            -0.2103678,
            -0.2586702,
            -0.20342492,
            0.3685625,
            -0.096580446,
            0.116471246,
            -0.25653172,
            -0.54018927,
            -0.34083712,
            -0.012548115,
            -0.15508413,
            0.22355229,
            -0.21911183,
            0.2536508,
            -0.12670124,
            -0.22162879,
            -0.16454124,
            -0.24260733,
            0.02703733,
            0.42123324,
            -0.06587042,
            -0.17094605,
            0.8228135,
            -0.534616,
            -0.21158442,
            0.0024984851,
            0.10888222,
            0.10009906,
            0.18130028,
            0.4399936,
            -0.028772429,
            -0.2295772,
            0.22385766,
            -0.3335308,
            0.039097518,
            -0.46615216,
            0.3262114,
            -0.19113773,
            -0.7584723,
            0.5486256,
            0.38360548,
            -0.1524322,
            -0.22955956,
            0.11913758,
            0.58325493,
            0.19091189,
            -0.04549486,
            -0.59746295,
            0.059918102,
            0.24954951,
            0.018269,
            -0.06098908,
            -0.17650932,
            0.060698956,
            -0.21463375,
            0.22919525,
            -0.09809953,
            0.2798798,
            -0.48851517,
            0.055513036,
            0.6187731,
            -0.022079837,
            -0.199805,
            0.029198475,
            0.0055140555,
            -0.066077664,
            -0.16703881,
            0.37500888,
            -0.07392599,
            -0.3662715,
            -0.10611815,
            -0.15225036,
            -0.53510714,
            -0.06784082,
            -0.15951878,
            0.43833882,
            0.50521344,
            0.6216061,
            0.0015288955,
            -0.56424606,
            0.43331236,
            0.3649958,
            0.08922766,
            0.08189592,
            -0.5091033,
            -0.42726263,
            0.05859559,
            0.0052453205,
            0.43123785,
            -0.3125522,
            0.087556034,
            0.46083474,
            -0.046073034,
            -0.09060071,
            -0.8125035,
            -0.20665935,
            0.56178796,
            0.5138937,
            -0.07041015,
            -0.10113022,
            -0.34275806,
            0.43466216,
            -0.055220254,
            -0.052693322,
            0.120838076,
            0.32702762,
            -0.22523098,
            0.12178209,
            -0.7943132,
            -0.29174665,
            -0.1767326,
            0.08386123,
            -0.2284218,
            -0.21411169,
            -0.14373168,
            -0.6185722,
            -0.17857096,
            0.21724199,
            0.28757283,
            0.31220064,
            0.070281245,
            0.033781543,
            -0.5119074,
            -0.47028705,
            -0.07852163,
            0.38276982,
            -0.0028442293,
            0.17554389,
            0.29140678,
            -0.11797149,
            0.28360426,
            0.045455255,
            -0.36392927,
            0.7348405,
            0.18011661,
            -0.36098894,
            1.2989126,
            -0.29945326,
            0.00682522,
            0.13675499,
            -0.12379777,
            0.18937843,
            -0.081057146,
            -0.1727607,
            -0.79076856,
            0.18436009,
            0.1232671,
            -0.36715773,
            -0.19072104,
            0.3053509,
            0.17266713,
            0.46739405,
            -0.13679136,
            -0.035359107,
            -0.28759775,
            0.09233513,
            0.03325129,
            0.4131726,
            -0.3205372,
            0.09138832,
            -0.280724,
            -0.8717155,
            0.14512017,
            0.5738938,
            -0.304146,
            -0.55050665,
            -0.5573521,
            0.008961391,
            -0.085874885,
            -0.16608542,
            0.066325165,
            -0.07788254,
            -0.04677725,
            -0.6438406,
            -0.6027075,
            0.5255716,
            0.31365678,
            0.42732865,
            0.35201144,
            0.44821316,
            -0.1849449,
            0.426159,
            0.032815233,
            -0.042972606,
            0.16191271,
            -0.28690368,
            -0.050613053,
            0.3664788,
            0.24265385,
            -0.32646602,
            0.0659838,
            -0.2954717,
            0.31778672,
            -0.07207057,
            0.3047287,
            -0.30802542,
            0.19323416,
            -0.65498984,
            -0.54463446,
            -0.093796924,
            -0.1609485,
            0.19541739,
            0.37255782,
            -0.3341447,
            0.6322443,
            -0.014618263,
            -0.2507487,
            -0.24487062,
            -0.15072039,
            -0.082607925,
            -0.8260565,
            0.14244735,
            -0.121024296,
            0.18094745,
            -0.41469413,
            0.027791567,
            -0.13422972,
            0.11470795,
            0.28986356,
            0.14380716,
            0.5329854,
            -0.18802398,
            0.027887955,
            -0.14946958,
            0.31362236,
            0.18655902,
            -0.66878843,
            0.030585542,
            0.0755037,
            -0.040372692,
            0.30515218,
            -0.42810202,
            -0.29701254,
            -0.060916997,
            0.199149,
            -0.5540912,
            0.53692216,
            0.14108449,
            0.3781634,
            -1.0384816,
            -0.28682274,
            -0.042753346,
            0.28711483,
            -0.23612875,
            0.033486515,
            0.2874045,
            -0.24184239,
            -0.2799312,
            0.28483286,
            0.40383014,
            0.28439844,
            0.5047962,
            -0.126001,
            -0.06394451,
            -0.09176034,
            0.1340994,
            0.061243013,
            -0.038852774,
            0.04950787,
            0.46994513,
            0.39884603,
            -0.24319975,
            0.41836584,
            0.060333863,
            0.722058,
            0.27916116,
            0.20603397,
            0.36399183,
            0.1355814,
            0.20429426,
            0.16364944,
            -0.8589438,
            -0.07805263,
            -0.18170962,
            0.35277706,
            0.6749816,
            0.5100881,
            0.13186651,
            -0.6367134,
            0.30955294,
            -0.46017212,
            0.6162965,
            0.17484893,
            0.024442863,
            -0.47258186,
            0.12998039,
            -0.042104915,
            0.0014099777,
            -0.5641513,
            -0.008123919,
            0.004284635,
            0.38473335,
            -0.26455015,
            0.43419898,
            0.31564057,
            -0.22031894,
            -0.26421958,
            -0.11890752,
            0.32342207,
            0.76837116,
            0.08000603,
            0.14374347,
            0.015936173,
            0.6026424,
            0.56391513,
            -0.18438508,
            0.21169138,
            -0.03566137,
            -0.56339383,
            0.5135885,
            -0.10188912,
            -0.37092358,
            0.0238389,
            -0.113477334,
            -0.16084328,
            -0.49487063,
            -0.009529106,
            0.28683352,
            0.3440085,
            -0.24990669,
            -0.3726727,
            0.061929636,
            0.0395281,
            0.5528612,
            0.11641948,
            0.08654601,
            0.02056191,
            0.00897561,
            -0.47073007,
            0.081876606,
            -0.13749813,
            0.2477143,
            0.017407924,
            -0.48359275,
            -0.021040868,
            -0.23999484,
            -0.076124564,
            -0.25271758,
            -0.03370112,
            -0.034299504,
            0.2708654,
            -0.34429127,
            0.07584401,
            -0.026802016,
            0.06607552,
            0.07798412,
            -0.17190726,
            -0.0387275,
            -0.31647855,
            -0.07845055,
            -0.40592176,
            -0.09760715,
            -0.15045786,
            0.17559779,
            0.31786504,
            -0.085444145,
            0.11709569,
            -0.527888,
            0.2012801,
            0.49164605,
            -0.2828825,
            -0.032900624,
            0.11842778,
            0.14397447,
            0.17501396,
            0.5642028,
            0.021199577,
            -0.036575027,
            -0.18455859,
            0.70943874,
            -0.5664504,
            -0.3001663,
            0.0059523433,
            0.025852174,
            -0.40585,
            0.26891783,
            0.26596704,
            0.3995512,
            -0.11798124,
            -0.010464046,
            0.03845246,
            0.094907634,
            0.6546342,
            0.05554189,
            -0.3075654,
            0.11562247,
            -0.5318953,
            0.020717192,
            0.2533024,
            -0.028245103,
            0.14845553,
            -0.24962747,
            -0.14427923,
            0.023528978,
            0.061414413,
            0.25704932,
            0.053351566,
            0.21264257,
            0.010028362,
            0.20972842,
            0.12147342
          ],
          [
            0.048829228,
            -0.24549013,
            -0.07943115,
            0.13648163,
            -0.37907413,
            0.08998303,
            0.36036706,
            0.38399628,
            0.0073061213,
            0.4758294,
            0.22160736,
            -0.23108189,
            0.26991415,
            -0.44285697,
            0.1285948,
            0.30595487,
            -0.002444949,
            0.085571945,
            -0.018488146,
            0.5753672,
            -0.23714405,
            -0.35519174,
            0.33762297,
            0.44148687,
            0.28351378,
            0.08604984,
            0.2020517,
            -0.22683844,
            0.17696095,
            0.51810247,
            1.1216563,
            0.7468275,
            -0.19337474,
            0.044079885,
            -0.19281656,
            -0.15389521,
            -0.33745208,
            -0.09353438,
            0.21251473,
            0.28971198,
            -0.24585086,
            -0.116344765,
            0.8847847,
            0.5636507,
            0.5019205,
            -0.37173834,
            -0.39648134,
            -0.5517739,
            -0.11941055,
            0.018813457,
            0.010832474,
            -0.34416908,
            0.029653892,
            0.03150001,
            0.47225222,
            -0.39164296,
            0.48020294,
            0.08948763,
            0.28776753,
            -0.67099607,
            0.05184312,
            -0.23346925,
            -0.10084787,
            0.34391966,
            0.41815948,
            0.069948524,
            -0.21351174,
            -0.3789295,
            0.15656993,
            -0.39076677,
            0.10477181,
            0.1459869,
            -0.4859838,
            -0.1970323,
            0.47515604,
            0.1057919,
            0.4975224,
            -0.7367834,
            -0.22227123,
            0.11606649,
            -0.19168235,
            0.14718656,
            0.07494783,
            -0.50471765,
            0.3822792,
            -0.40533993,
            -0.09790265,
            -0.66659886,
            0.4186786,
            -0.0051619764,
            0.87518674,
            0.38782758,
            -0.36363533,
            -0.44831875,
            0.046418037,
            -0.16560109,
            -0.40855798,
            0.20824192,
            -0.0742362,
            -0.0127271265,
            -0.09855475,
            -0.5225371,
            -0.21629488,
            0.22100414,
            0.4723757,
            0.16970736,
            0.22626846,
            0.21986285,
            -0.5065117,
            -0.09285193,
            0.25669125,
            -0.82552093,
            0.58980465,
            -0.35870236,
            0.45022708,
            -0.041984282,
            0.79060525,
            -0.40167004,
            -0.022285394,
            -0.4106859,
            -0.44500464,
            -0.40748698,
            -0.19424054,
            0.33086652,
            0.24584378,
            0.5562067,
            -0.697714,
            -0.000744069
          ],
          [
            -0.08175956,
            0.31460688,
            0.061630636,
            0.59930295,
            1.2466528,
            0.44482446,
            -0.80351603,
            0.31031808,
            -0.03586446,
            0.8945899,
            0.07203677,
            0.05992485,
            0.8850811,
            -0.13381933,
            -0.48994312,
            0.41654706,
            -0.34129393,
            -0.18233764,
            -0.559462,
            -0.7289182,
            0.6725887,
            0.26159406,
            -0.34807962,
            -0.35717088
          ]
        ],
        "biases": [
          [
            -0.050043564,
            0,
            -0.077541575,
            -0.10689594,
            0.08814478,
            0.006673636,
            0.015776806,
            0.15751734,
            -0.31268385,
            0.040429227,
            0.04795853,
            0.01585811,
            -0.04738193,
            -0.039042346,
            0.14326127,
            0.07934499
          ],
          [
            0.28688046,
            -0.11627163,
            -0.0932364,
            0,
            -0.25305387,
            -0.108432174,
            0.026563834,
            0
          ],
          [
            -0.32150242,
            -0.078906685,
            -2
          ]
        ]
      }
    },
    {
      "entity_id": 103531,
      "fitness": 2165.6924,
      "children": 19,
      "kills": 0,
      "survival_sec": 16195.751,
      "foraging": 489.1173,
      "clade_id": 103531,
      "founder_archetype": "grazer",
      "diet": 0.020149983,
      "brain": {
        "layers": [
          28,
          16,
          8,
          3
        ],
        "weights": [
          [
            0.04044436,
            -0.5916049,
            -0.02861929,
            0.4896992,
            -0.3463986,
            0.32071665,
            0.28211844,
            -0.23301627,
            0.32170317,
            0.38531637,
            0.22916983,
            0.22126272,
            -0.05775246,
            -0.05306457,
            -0.23866385,
            0.32596168,
            0.4125557,
            -0.6447897,
            0.070980355,
            0.06304553,
            -0.6910727,
            -0.33043814,
            -0.47861403,
            -0.03577338,
            0.19635817,
            0.042421013,
            -0.41849494,
            -0.0818741,
            0.106744334,
            -0.50725836,
            0.13673803,
            0.68170315,
            0.11514365,
            -0.02361776,
            -0.23372103,
            0.31082523,
            -0.19293095,
            0.32851052,
            -0.0092127025,
            -0.21541812,
            -0.37928808,
            0.17337602,
            0.44111502,
            -0.24319738,
            0.22057171,
            -0.15435967,
            0.39842504,
            -0.38027757,
            -0.10996122,
            -0.14440557,
            0.47022095,
            0.07152009,
            0.31503832,
            -0.5002437,
            0.22809058,
            -0.43394548,
            -0.2975282,
            -0.2406156,
            0.295978,
            -0.2350907,
            0.16202378,
            -0.3557468,
            -0.14897259,
            -0.34864458,
            -0.7719932,
            -0.19398731,
            0.48552978,
            -0.108152464,
            -0.11242433,
            1.036539,
            -0.849364,
            -0.577096,
            -0.20671201,
            0.22234964,
            0.37476856,
            0.22219059,
            -0.043101322,
            0.0030493848,
            -0.1937663,
            0.13932121,
            -0.42168188,
            0.42199555,
            -0.30960593,
            0.11684445,
            -0.20045325,
            -0.69477963,
            0.21490878,
            0.099327,
            -0.2539565,
            -0.31058976,
            0.25221437,
            0.25053775,
            0.34851158,
            0.020462044,
            -0.5829151,
            -0.043709125,
            -0.05514797,
            0.51048905,
            0.34687185,
            0.10132639,
            0.24310958,
            -0.16163015,
            0.5416215,
            0.335871,
            0.3265582,
            0.048159927,
            0.13062401,
            0.5883664,
            -0.04134685,
            -0.32356775,
            -0.040677562,
            -0.10254366,
            -0.019876573,
            -0.18164973,
            0.39665717,
            -0.26184952,
            -0.35977924,
            0.00089331064,
            0.043482076,
            -0.301114,
            0.08127713,
            -0.2978499,
            0.50951844,
            0.57698363,
            0.40716082,
            -0.34674972,
            -0.451759,
            0.079450324,
            0.31926063,
            0.015814058,
            0.043595526,
            -0.4344643,
            -0.8123339,
            0.057896324,
            0.06349285,
            0.33772987,
            -0.08854194,
            0.18672746,
            0.17465839,
            -0.33797112,
            0.04850064,
            -0.80808675,
            -0.077807486,
            0.38509226,
            0.52282417,
            -0.21878374,
            -0.18360227,
            -0.06557536,
            0.057702303,
            0.07419102,
            -0.14206265,
            -0.06920427,
            0.5612505,
            -0.027394522,
            0.21245964,
            -0.2647446,
            -0.055170752,
            -0.247628,
            -0.027091589,
            -0.3316028,
            -0.20198692,
            -0.11199018,
            -0.21908544,
            -0.17099643,
            0.36211753,
            0.37011793,
            0.03707388,
            -0.18340692,
            0.04124117,
            -0.18261415,
            -0.49027908,
            0.075157665,
            0.70500916,
            0.6800972,
            0.017925324,
            0.18976298,
            -0.38547146,
            0.606714,
            1.1500708,
            -0.26067024,
            0.78224987,
            0.46335828,
            -0.33809078,
            1.0973117,
            -0.15981728,
            0.11798078,
            -0.07001302,
            -0.15597668,
            0.38144153,
            -0.3014979,
            0.13392556,
            -0.77527076,
            0.20595178,
            0.2589165,
            -0.18817678,
            -0.387997,
            -0.0730764,
            0.18413892,
            0.044578366,
            0.5638635,
            -0.06644747,
            -0.31540078,
            -0.16762853,
            0.023814537,
            0.7377779,
            -0.17166914,
            0.48076457,
            -0.26207358,
            -0.9079473,
            0.10160625,
            0.8542348,
            -0.014856227,
            -0.65536666,
            -0.62182105,
            0.0077666193,
            -0.12585588,
            -0.35599986,
            -0.051784273,
            0.18851793,
            0.17320824,
            -0.32337433,
            -0.14831728,
            0.34258175,
            0.39147478,
            0.7013032,
            0.24986899,
            0.3502698,
            -0.22295295,
            -0.1782277,
            0.19941314,
            -0.20135483,
            0.10507944,
            -0.23417994,
            0.056998566,
            0.3367762,
            0.23922954,
            -0.39185685,
            0.26551414,
            -0.39779118,
            0.20756176,
            -0.13240574,
            0.43266457,
            -0.21542159,
            0.11762901,
            -0.42575,
            -0.54945076,
            0.0059266817,
            0.049900234,
            0.06429935,
            0.3970497,
            -0.22974703,
            0.22377312,
            -0.047814354,
            -0.09550025,
            -0.045503095,
            0.11879139,
            -0.13102308,
            -0.7954249,
            0.22279881,
            0.06394793,
            0.17296028,
            -0.28707132,
            0.045252457,
            -0.291198,
            0.22009158,
            0.12128426,
            0.13160983,
            0.32445088,
            -0.04997,
            0.10058962,
            0.005734576,
            0.21891533,
            0.20885,
            -0.44314978,
            0.16538425,
            0.050678216,
            -0.041054606,
            0.4522649,
            -0.37044936,
            -0.40026063,
            -0.10069744,
            -0.051007137,
            -0.526379,
            0.4112167,
            -0.024322517,
            0.111058265,
            -1.1341478,
            -0.49712515,
            -0.11710975,
            0.5356796,
            -0.17144464,
            -0.2726867,
            0.28418112,
            -0.39825022,
            -0.1019302,
            0.31930497,
            0.0059367046,
            0.24051869,
            0.08624741,
            -0.038223177,
            -0.12094124,
            -0.08319561,
            0.29933223,
            -0.16166416,
            0.095815524,
            -0.15541615,
            0.3672983,
            0.43280387,
            -0.23074153,
            0.5914677,
            -0.38519192,
            1.102052,
            0.45527798,
            0.3827734,
            0.26710746,
            0.09036676,
            0.29368806,
            0.2376984,
            -0.5587181,
            -0.39008614,
            -0.009494169,
            0.4989644,
            0.68694746,
            0.19693616,
            0.25294703,
            -0.6288173,
            0.19541222,
            -0.21247128,
            0.6080222,
            0.27222288,
            0.055928748,
            -0.22636488,
            0.04318747,
            -0.37990537,
            0.041540973,
            -0.42471492,
            -0.1579269,
            0.09629459,
            0.20752151,
            -0.3577928,
            0.8171093,
            0.036591325,
            -0.14557749,
            -0.027278159,
            -0.24904588,
            0.2357853,
            0.3317916,
            -0.14979169,
            -0.009312101,
            0.09795599,
            0.37846968,
            0.4884335,
            0.10024592,
            0.30225044,
            0.1833478,
            -0.6209527,
            0.34059513,
            -0.18307582,
            -0.5639336,
            0.21717782,
            -0.27201253,
            0.0271576,
            -0.7517452,
            -0.02867427,
            -0.036343552,
            0.2128694,
            0.09094125,
            -0.19196859,
            0.110314764,
            0.19027576,
            0.42820615,
            0.36472464,
            0.04017633,
            -0.26786897,
            0.15593891,
            -0.2192516,
            0.2269962,
            -0.1705294,
            0.38378146,
            0.11710607,
            -0.3766916,
            0.17526798,
            -0.42463902,
            -0.05627598,
            0.25996286,
            0.27967396,
            -0.13576189,
            0.3516159,
            -0.43071988,
            0.17079985,
            -0.3102135,
            -0.029790156,
            -0.096371636,
            -0.0074275797,
            -0.10448529,
            -0.31612697,
            0.02693981,
            -0.11634647,
            -0.11368078,
            -0.14190164,
            0.5671476,
            0.17828052,
            -0.09697285,
            0.42921907,
            -0.4137233,
            0.08295897,
            0.5012369,
            -0.011399832,
            -0.24066368,
            -0.05403412,
            -0.04743643,
            -0.012777507,
            0.44336045,
            -0.288397,
            0.13903709,
            0.010432668,
            0.7326277,
            -0.5825436,
            -0.25726163,
            -0.054429263,
            0.14177749,
            -0.630632,
            0.3016029,
            -0.009433292,
            0.54126936,
            -0.18458101,
            0.08178696,
            0.13632174,
            -0.065849446,
            0.5045604,
            0.31445256,
            -0.09059074,
            0.30541554,
            -0.5816347,
            0.32289737,
            0.016920745,
            -0.13853662,
            0.06509517,
            -0.47224066,
            -0.2556718,
            0.21631394,
            -0.053643122,
            -0.02096136,
            0.1205513,
            0.48197785,
            0.13515913,
            0.5078392,
            0.2869301
          ],
          [
            0.12365053,
            -0.37347925,
            0.22592779,
            0.34026042,
            -0.2881923,
            -0.33397484,
            0.3438177,
            0.40046486,
            -0.27693075,
            0.17261891,
            0.078556925,
            -0.27077973,
            0.24404287,
            -0.48085704,
            0.19034241,
            0.16602607,
            -0.33866417,
            0.04710163,
            -0.34510842,
            0.79376227,
            -0.30156884,
            -0.32336745,
            0.18507698,
            0.40194565,
            0.14651492,
            0.04191342,
            0.29014948,
            -0.1874882,
            0.08011851,
            0.98853415,
            1.2270905,
            0.66701704,
            -0.09125913,
            0.095878474,
            -0.19775842,
            -0.27448747,
            -0.35692388,
            -0.102347955,
            0.5414861,
            0.45639712,
            -0.12759152,
            -0.36956438,
            0.64315027,
            0.27154383,
            0.51359344,
            -0.32247248,
            -0.28761253,
            -0.3454463,
            -0.3102685,
            -0.16351217,
            -0.26569885,
            -0.14582148,
            -0.49317345,
            0.32608908,
            0.40894067,
            -0.006719388,
            0.5968448,
            0.19725376,
            0.3015998,
            -0.6282256,
            0.069059536,
            -0.29222208,
            -0.1292558,
            0.24674115,
            0.43034744,
            -0.5135608,
            -0.63978064,
            -0.6706319,
            0.19742554,
            -0.22772598,
            0.4556365,
            0.1522519,
            -0.6266201,
            -0.1047085,
            0.0672902,
            0.30613047,
            -0.073792845,
            -0.8056783,
            -0.3104914,
            0.06333203,
            -0.25118363,
            0.1661557,
            -0.10192901,
            -0.38895768,
            0.4039125,
            -0.5201238,
            0.028387573,
            -0.6661521,
            0.6671989,
            0.19058627,
            0.82693833,
            0.8538711,
            -0.3091494,
            -0.5163459,
            -0.18905516,
            -0.16189116,
            -0.52278453,
            0.026636317,
            0.03628522,
            -0.14163488,
            -0.347524,
            -0.09367512,
            -0.48019934,
            0.5048873,
            0.38915002,
            0.3600956,
            0.5925113,
            0.28279486,
            -0.42743194,
            0.02500379,
            0.40617043,
            -0.39706877,
            0.68701553,
            -0.35314882,
            0.3204529,
            0.39066777,
            0.17378911,
            -0.65827405,
            0.23104131,
            -0.48686466,
            -0.40783995,
            -0.5734463,
            0.080767095,
            -0.43937325,
            0.15464722,
            0.22855395,
            -0.435642,
            -0.13839239
          ],
          [
            0.031715207,
            0.24895948,
            0.0037398413,
            0.21301332,
            1.3122212,
            0.16878039,
            -0.7189231,
            0.5613353,
            0.08252625,
            0.7895236,
            0.24034807,
            0.041845877,
            0.6934593,
            -0.38766527,
            -0.080668315,
            0.58180237,
            -0.20008695,
            -0.1417268,
            -0.35880885,
            -0.5091443,
            0.67865574,
            0.14985411,
            -0.2368676,
            -0.23231252
          ]
        ],
        "biases": [
          [
            0,
            0,
            -0.15397647,
            0.0847244,
            0.27870774,
            -0.016707398,
            -0.046078444,
            0.48739335,
            -0.30231553,
            -0.01791606,
            0.15210605,
            0.11422392,
            0.07643947,
            0.0370204,
            0,
            -0.113206185
          ],
          [
            0.0027440072,
            0.037462924,
            -0.20968005,
            0.17808196,
            -0.17961179,
            0.016378716,
            0.13593343,
            0.0061715264
          ],
          [
            -0.4290297,
            -0.32148203,
            -2.0940924
          ]
        ]
      }
    },
    {
      "entity_id": 106488,
      "fitness": 2043.7306,
      "children": 15,
      "kills": 0,
      "survival_sec": 15489.884,
      "foraging": 449.74216,
      "clade_id": 106488,
      "founder_archetype": "grazer",
      "diet": 0,
      "brain": {
        "layers": [
          28,
          16,
          8,
          3
        ],
        "weights": [
          [
            0.08298526,
            -0.68540686,
            0.12425962,
            0.54672396,
            -0.31712106,
            0.39978534,
            0.5518589,
            -0.065629974,
            0.5235797,
            0.22833504,
            0.5452749,
            0.20512748,
            -0.19126235,
            -0.33651662,
            -0.074144036,
            0.55611515,
            0.4939539,
            -0.31661466,
            0.10485717,
            0.040633168,
            -0.5498528,
            -0.20237777,
            -0.5578024,
            -0.040509917,
            0.3027748,
            0.16537361,
            -0.6159178,
            0.21432436,
            0.16718766,
            -0.19743441,
            -0.4636248,
            0.53651613,
            0.15857613,
            0.33199263,
            -0.25517386,
            -0.094257206,
            -0.46837676,
            0.33694667,
            0.34719452,
            0.08673245,
            -0.1390561,
            0.09978314,
            0.48182786,
            -0.21550333,
            0.10197553,
            -0.48162487,
            0.417683,
            -0.21539615,
            -0.5015313,
            -0.23236893,
            0.31860787,
            -0.08949813,
            0.13889395,
            -0.2477453,
            -0.6423806,
            -0.36904195,
            0.015966203,
            -0.32801414,
            0.42641717,
            -0.19725247,
            0.07701792,
            0.07116592,
            -0.3772235,
            -0.1924642,
            -0.37575978,
            0.02703733,
            0.37166828,
            -0.068292126,
            -0.15799724,
            0.65814227,
            -0.5572797,
            -0.105717644,
            -0.18995847,
            0.15603423,
            0.13301471,
            0.14566785,
            0.1686565,
            -0.1226265,
            -0.38746548,
            0.20990932,
            -0.39538762,
            0.039097518,
            -0.37900376,
            0.28469342,
            -0.28161043,
            -0.7219137,
            0.4600894,
            0.3890282,
            -0.1524322,
            -0.13625914,
            -0.07914041,
            0.67073816,
            0.31363273,
            -0.041081775,
            -0.54614884,
            -0.21493416,
            0.13864845,
            0.05263648,
            0.013327954,
            -0.27343273,
            0.015984472,
            -0.20892948,
            0.39994726,
            0.13551448,
            0.35448122,
            -0.5190319,
            0.16765976,
            0.6187731,
            -0.08391118,
            -0.26415765,
            0.17198837,
            -0.030107852,
            0.059548795,
            -0.25094244,
            0.4037862,
            -0.07392599,
            -0.3662715,
            -0.060639672,
            -0.7480755,
            -0.56196797,
            -0.010194022,
            -0.058791794,
            0.3190671,
            0.6216899,
            0.6531206,
            0.078408904,
            -0.56424606,
            0.40287083,
            0.3649958,
            0.12204477,
            0.15381044,
            -0.7583702,
            -0.5789598,
            0.04606073,
            -0.21999092,
            0.16906738,
            -0.3601231,
            0.087556034,
            0.257979,
            -0.071982734,
            0.081469364,
            -0.91445637,
            -0.18590744,
            0.56178796,
            0.5878754,
            -0.025420655,
            -0.1431878,
            -0.2676287,
            0.53854924,
            -0.07012725,
            -0.2615891,
            0.120838076,
            0.44517416,
            -0.14995393,
            0.08507654,
            -0.7943132,
            0.07125881,
            -0.12404205,
            -0.0031278953,
            -0.3693445,
            -0.20789921,
            -0.16603635,
            -0.48227355,
            -0.08583046,
            0.21724199,
            0.2794495,
            0.2285923,
            -0.20288916,
            0.13955025,
            -0.42865166,
            -0.47028705,
            -0.07852163,
            0.38276982,
            -0.3044287,
            0.43828434,
            0.30455324,
            -0.11797149,
            0.33937696,
            0.106686965,
            -0.40825632,
            0.5611685,
            0.20327917,
            -0.26968575,
            1.4308934,
            -0.22420909,
            -0.0291721,
            0.09599936,
            -0.1564421,
            0.29055673,
            -0.081057146,
            -0.10283186,
            -0.83015025,
            0.18436009,
            -0.15771161,
            -0.16915098,
            -0.19072104,
            -0.012376934,
            0.24979609,
            0.34413463,
            -0.1658754,
            -0.035359107,
            -0.2893266,
            0.09233513,
            0.11454897,
            0.45411232,
            -0.23166451,
            0.0246374,
            -0.37437508,
            -0.8304338,
            0.14794801,
            0.6322929,
            -0.23975343,
            -0.7228684,
            -0.5573521,
            -0.11100243,
            0.050637662,
            -0.20865612,
            0.08261644,
            -0.07788254,
            0.19535957,
            -0.41246712,
            -0.4766427,
            0.5255716,
            0.29681486,
            0.56483144,
            0.39627513,
            0.31885755,
            -0.043413017,
            0.19381328,
            -0.070741154,
            -0.079547755,
            -0.074662976,
            -0.28494996,
            -0.06880243,
            0.4930687,
            0.24992546,
            -0.14924225,
            0.22275257,
            -0.2364801,
            0.39594617,
            0.04791768,
            0.17782289,
            -0.30802542,
            -0.00004247576,
            -0.6870803,
            -0.6396434,
            -0.242966,
            -0.27453923,
            0.22227743,
            0.3315788,
            -0.10852681,
            0.43348008,
            0.014151316,
            -0.15474662,
            -0.29539463,
            -0.15072039,
            -0.2000002,
            -0.8123498,
            0.12281088,
            -0.121024296,
            0.13481204,
            -0.41526598,
            -0.089663334,
            -0.12864129,
            0.11470795,
            0.15358987,
            0.27433497,
            0.6696441,
            -0.37754962,
            0.15651363,
            -0.16347465,
            0.34290087,
            0.19802678,
            -0.809426,
            0.030585542,
            0.20135182,
            0.022174876,
            0.14635006,
            -0.3680764,
            -0.29701254,
            -0.108437516,
            0.27604735,
            -0.40236324,
            0.53692216,
            0.2322278,
            0.51693636,
            -1.0240077,
            -0.5270294,
            0.025387913,
            0.28711483,
            -0.280142,
            0.033486515,
            0.09278189,
            -0.20641279,
            -0.43082094,
            0.3558147,
            0.49470937,
            0.003110826,
            0.5047962,
            -0.3509268,
            -0.13677207,
            -0.11912691,
            0.1590715,
            0.06325852,
            -0.038852774,
            0.024238767,
            0.40107638,
            0.48442635,
            -0.42276078,
            0.5153789,
            -0.002266787,
            0.77908206,
            0.14989689,
            0.23112687,
            0.596931,
            0.12520447,
            0.20429426,
            0.26238492,
            -0.8955862,
            -0.07805263,
            -0.20193511,
            0.35997164,
            0.7155002,
            0.8454085,
            0.31096557,
            -0.79671544,
            0.19646358,
            -0.44000712,
            0.6162965,
            0.10633694,
            0.007714783,
            -0.5309786,
            0.12998039,
            -0.87734616,
            -0.027680926,
            -0.5641513,
            -0.27301863,
            -0.24626388,
            0.3744983,
            -0.37321228,
            0.5507303,
            0.342293,
            -0.066790156,
            -0.27444494,
            -0.1289913,
            0.40397203,
            0.918136,
            0.32471156,
            0.0021412224,
            0.015936173,
            0.4986072,
            0.7424247,
            -0.26012093,
            0.2568263,
            -0.03566137,
            -0.48818004,
            0.46512735,
            -0.099554665,
            -0.40007523,
            -0.056735553,
            -0.17109454,
            -0.12436509,
            -0.52700853,
            0.002329357,
            0.26468918,
            0.2576693,
            -0.24990669,
            -0.3148768,
            0.019683134,
            0.13040785,
            0.3349796,
            0.2360678,
            0.19620903,
            -0.11027351,
            -0.0027666166,
            -0.39547765,
            -0.03267941,
            -0.09300664,
            0.2477143,
            0.011997011,
            -0.48359275,
            0.02839398,
            -0.36815366,
            -0.040191818,
            -0.01191251,
            0.25951862,
            -0.005999212,
            0.32889736,
            -0.43798655,
            -0.24796844,
            -0.028276637,
            -0.13350138,
            -0.0010580048,
            -0.27449384,
            0.084968045,
            -0.362188,
            -0.14078525,
            -0.61462957,
            -0.28656164,
            -0.17011684,
            0.2275291,
            0.25014484,
            -0.025857572,
            0.11709569,
            -0.54525393,
            0.32813573,
            0.3312754,
            -0.094976574,
            0.026732642,
            -0.09595495,
            0.11717611,
            0.4139524,
            0.7382384,
            -0.009974169,
            0.076686144,
            -0.22158314,
            0.80104077,
            -0.4423821,
            -0.18944831,
            0.020740021,
            0.038798608,
            -0.3956167,
            0.22264817,
            0.31967828,
            0.6419338,
            -0.07191568,
            -0.25612795,
            0.05137136,
            0.036244947,
            0.59703386,
            0.042610273,
            -0.26543465,
            0.085048385,
            -0.5025363,
            -0.0031198412,
            0.2533024,
            0.017940857,
            0.14845553,
            -0.55660284,
            -0.15578821,
            0.09607213,
            0.07430018,
            0.25704932,
            -0.05377543,
            0.2325738,
            0.010028362,
            0.4355625,
            0.1674272
          ],
          [
            0.15155901,
            -0.29773733,
            -0.113314055,
            -0.026468605,
            -0.41732362,
            0.20380965,
            0.28267726,
            0.32350484,
            -0.079543695,
            0.4758294,
            0.20144565,
            -0.24253535,
            0.25786486,
            -0.44804522,
            0.1285948,
            0.1712839,
            -0.13617262,
            0.085571945,
            -0.13500647,
            0.7539191,
            -0.30948558,
            -0.35519174,
            0.2818413,
            0.47230196,
            0.11166901,
            0.08604984,
            0.09659352,
            -0.22683844,
            0.30421284,
            1.0449206,
            1.1280947,
            0.7468275,
            -0.1319716,
            0.103375286,
            -0.097303435,
            -0.1122246,
            -0.88415945,
            -0.19888765,
            0.21251473,
            0.122265,
            -0.4254198,
            -0.116344765,
            0.76584184,
            0.5615059,
            0.61888826,
            -0.4087588,
            -0.16106921,
            -0.4817933,
            -0.034903172,
            -0.03926125,
            -0.22510037,
            -0.32925877,
            0.13803416,
            0.080097705,
            0.40037224,
            -0.5117264,
            0.31661105,
            0.08948763,
            0.31155324,
            -0.6394859,
            0.1605331,
            -0.22731632,
            -0.16391394,
            0.2634928,
            0.55671316,
            0.023434013,
            -0.18800405,
            -0.48078576,
            0.3014748,
            -0.42454648,
            0.10477181,
            -0.021369964,
            -0.6898617,
            -0.27831376,
            0.47515604,
            0.1897749,
            0.45718157,
            -0.66100764,
            -0.18104842,
            0.18584897,
            -0.18212816,
            0.15336183,
            0.030108172,
            -0.50471765,
            0.3637069,
            -0.361963,
            -0.21169417,
            -0.49211693,
            0.4896558,
            0.031728342,
            0.88562095,
            0.23529427,
            -0.5573652,
            -0.45612624,
            0.08617987,
            -0.23086593,
            -0.3615036,
            0.13425845,
            -0.11971173,
            -0.0127271265,
            -0.10187085,
            -0.57341474,
            -0.20916265,
            0.22100414,
            0.4723757,
            0.16970736,
            0.45428893,
            0.09067627,
            -0.42251316,
            -0.090095714,
            0.2846596,
            -0.8136067,
            0.57667094,
            -0.13581872,
            0.45022708,
            -0.38847157,
            0.8418733,
            -0.39245945,
            -0.05269569,
            -0.4746924,
            -0.47842222,
            -0.42518747,
            0.06868301,
            0.12776798,
            0.13887851,
            0.5911146,
            -0.58035225,
            0.0016552135
          ],
          [
            -0.33783424,
            0.31460688,
            -0.06136313,
            0.59930295,
            1.1649975,
            0.5596475,
            -0.7182848,
            0.34205312,
            0.043646358,
            0.9725292,
            0.29609132,
            0.0698026,
            0.90456384,
            -0.13381933,
            -0.49061233,
            0.2757538,
            -0.26132366,
            -0.38973248,
            -0.6248032,
            -0.8506777,
            0.68002695,
            0.19920594,
            -0.675038,
            -0.41580963
          ]
        ],
        "biases": [
          [
            -0.058974028,
            0,
            -0.077541575,
            -0.12752527,
            0.066584215,
            -0.05129782,
            0.015776806,
            0.15751734,
            -0.23015943,
            0.040429227,
            0.04795853,
            0.041328922,
            -0.04738193,
            -0.015131399,
            0.20125455,
            0.25237784
          ],
          [
            0.3016757,
            -0.11627163,
            -0.07182453,
            -0.13952209,
            -0.25305387,
            -0.17827368,
            0.052587256,
            0
          ],
          [
            -0.32150242,
            -0.078906685,
            -1.8764503
          ]
        ]
      }
    },
    {
      "entity_id": 106432,
      "fitness": 2017.5569,
      "children": 11,
      "kills": 0,
      "survival_sec": 16415.635,
      "foraging": 342.99347,
      "clade_id": 106432,
      "founder_archetype": "grazer",
      "diet": 0,
      "brain": {
        "layers": [
          28,
          16,
          8,
          3
        ],
        "weights": [
          [
            -0.30926943,
            -0.6255351,
            0.0573579,
            0.7691933,
            -0.4134905,
            0.40252292,
            0.30028245,
            -0.065629974,
            0.4052806,
            0.40790927,
            0.54317653,
            0.032830805,
            -0.31847918,
            -0.06095044,
            -0.07988712,
            0.364822,
            0.33811796,
            -0.19435894,
            0.08453781,
            0.11191784,
            -0.49850026,
            -0.084227555,
            -0.45031887,
            0.028549116,
            0.369941,
            0.21694458,
            -0.4106276,
            0.36837548,
            0.27614534,
            -0.21335149,
            -0.6015085,
            0.6299883,
            0.1625027,
            0.32370928,
            -0.36140907,
            -0.065633096,
            -0.6919396,
            0.03251718,
            0.33605003,
            0.093424276,
            -0.16676751,
            0.13057518,
            0.47946513,
            -0.042573016,
            0.51217854,
            -0.40990433,
            0.3684396,
            0.13201906,
            -0.24891433,
            -0.23837592,
            0.29456156,
            -0.096580446,
            0.044445492,
            -0.36132807,
            -0.6533677,
            -0.39565468,
            0.11810982,
            -0.13190857,
            0.2544075,
            -0.10156907,
            0.23608962,
            -0.031069135,
            -0.3856927,
            -0.056317475,
            -0.3315103,
            0.02703733,
            0.335125,
            -0.0512968,
            -0.14283359,
            0.7511685,
            -0.49734205,
            -0.1744987,
            -0.0678342,
            0.106410354,
            0.10009906,
            0.18130028,
            0.26293075,
            -0.1192952,
            -0.2144395,
            0.18857373,
            -0.5450316,
            0.13316661,
            -0.44837537,
            0.57705444,
            0.0033967495,
            -0.7242735,
            0.62618494,
            0.36585698,
            -0.13201879,
            -0.20728675,
            0.16605672,
            0.5986397,
            0.11602046,
            -0.14640188,
            -0.5828695,
            -0.046701204,
            0.24954951,
            0.04463782,
            -0.0966502,
            0.17495728,
            0.19512011,
            -0.21463375,
            0.2913912,
            -0.005379878,
            0.24256039,
            -0.4589034,
            0.12020076,
            0.73964643,
            -0.19999194,
            -0.19532163,
            0.05072993,
            0.16466671,
            -0.066077664,
            -0.12575027,
            0.37500888,
            -0.027450915,
            -0.3662715,
            -0.1363359,
            -0.25626105,
            -0.46427026,
            -0.06784082,
            -0.15951878,
            0.43833882,
            0.5612952,
            0.6282068,
            -0.22745594,
            -0.5305524,
            0.4906429,
            0.36762285,
            -0.09784223,
            -0.006389275,
            -0.52108467,
            -0.54027027,
            -0.03447099,
            0.14322928,
            0.37172619,
            -0.3287039,
            0.045467526,
            0.46083474,
            -0.046073034,
            -0.18735555,
            -0.8125035,
            -0.18212742,
            0.52560604,
            0.5476288,
            -0.10901655,
            -0.20517665,
            -0.31975836,
            0.55186206,
            -0.03695888,
            -0.028706936,
            -0.037127435,
            0.41899097,
            -0.4466708,
            0.1449414,
            -0.7943132,
            -0.28614193,
            -0.27412623,
            0.08386123,
            -0.18511924,
            -0.22057734,
            -0.14373168,
            -0.57487977,
            -0.18629393,
            0.28327775,
            0.43876907,
            0.30016568,
            -0.19657227,
            0.07384116,
            -0.6812105,
            -0.30712837,
            -0.1439698,
            0.40475932,
            0.7147523,
            0.17554389,
            0.3791722,
            -0.2786917,
            0.24063662,
            -0.0935533,
            -0.36392927,
            0.7953618,
            0.13161442,
            -0.40771118,
            1.2370348,
            -0.35932177,
            -0.040963184,
            0.13675499,
            -0.1370593,
            0.30029607,
            -0.111835346,
            -0.33820885,
            -0.79076856,
            0.21266022,
            0.030049529,
            -0.16424125,
            -0.20335811,
            0.14754435,
            0.15573597,
            0.4249494,
            -0.09327875,
            -0.21936782,
            -0.36509043,
            0.032370172,
            0.14015621,
            0.4131726,
            -0.34152648,
            0.09138832,
            -0.280724,
            -0.8717155,
            0.21914698,
            0.5584216,
            -0.16791901,
            -0.55050665,
            -0.5573521,
            -0.018045604,
            -0.085874885,
            -0.33768862,
            -0.035653777,
            0.07711552,
            0.034163363,
            -0.39432153,
            -0.59094006,
            0.48424464,
            0.31365678,
            0.47057748,
            0.48814476,
            0.62626374,
            -0.1849449,
            0.426159,
            0.07890932,
            -0.32173967,
            0.30719116,
            -0.21954633,
            -0.035983413,
            0.32868236,
            0.16108304,
            -0.22758758,
            0.0040524453,
            -0.2954717,
            0.3070491,
            -0.07207057,
            0.20705184,
            -0.35656944,
            0.12505549,
            -0.7072665,
            -0.5028116,
            -0.26497453,
            -0.1609485,
            0.1292048,
            0.35310483,
            -0.2918379,
            0.43348008,
            -0.00088968687,
            -0.12983342,
            -0.21483892,
            -0.024581905,
            -0.047274258,
            -0.87825227,
            0.1224266,
            -0.24042885,
            0.17705722,
            -0.40865397,
            -0.07840113,
            -0.12991855,
            0.020911112,
            0.1843722,
            0.17427026,
            0.51924837,
            -0.114404574,
            0.12766796,
            -0.21459043,
            0.2724554,
            0.15285721,
            -0.6830309,
            0.08809714,
            0.22779934,
            -0.040372692,
            0.3511298,
            -0.38407046,
            -0.4239564,
            -0.16676122,
            0.199149,
            -0.5215082,
            0.53692216,
            0.14108449,
            0.38417625,
            -1.0502201,
            -0.14627224,
            -0.042753346,
            0.31362078,
            -0.405115,
            0.033486515,
            0.28613368,
            -0.37714136,
            -0.16630517,
            0.3747344,
            0.51551497,
            0.5453135,
            0.5047962,
            -0.21751527,
            -0.07895145,
            -0.036708616,
            0.13672315,
            -0.075378105,
            -0.038852774,
            -0.026885,
            0.48143333,
            0.36153027,
            -0.3435841,
            0.42208877,
            0.115427665,
            0.69592375,
            0.23616126,
            0.2041405,
            0.41177773,
            0.13966937,
            0.14171247,
            0.26061517,
            -0.72783726,
            -0.07805263,
            -0.14611073,
            0.35277706,
            0.6691232,
            0.49314642,
            0.22527072,
            -0.58520555,
            0.30955294,
            -0.44610605,
            0.6162965,
            0.17484893,
            -0.037757024,
            -0.47258186,
            -0.012049731,
            -0.12361179,
            0.20840642,
            -0.5270969,
            0.10161172,
            0.004284635,
            -0.0013917442,
            -0.29105055,
            0.6759452,
            0.31564057,
            -0.31597906,
            -0.27287185,
            -0.0004523918,
            0.41136613,
            0.5714954,
            0.14461738,
            0.14374347,
            0.14465114,
            0.6530357,
            0.595774,
            -0.23214161,
            0.276963,
            -0.03566137,
            -0.31230152,
            0.22991382,
            -0.072870806,
            -0.23116054,
            0.038697287,
            -0.23317368,
            -0.23965406,
            -0.5741236,
            -0.009529106,
            0.27735484,
            0.3440085,
            -0.2955221,
            -0.50494194,
            0.02363718,
            -0.1488112,
            0.47646737,
            0.11641948,
            0.13288924,
            -0.055027924,
            0.022512544,
            -0.47255528,
            0.058348015,
            -0.03366758,
            0.27096677,
            -0.013191488,
            -0.4668846,
            -0.0136670545,
            -0.23999484,
            -0.09002395,
            -0.25271758,
            -0.03370112,
            -0.08291776,
            0.2972948,
            -0.37293056,
            -0.06135399,
            -0.077110626,
            -0.032190755,
            -0.07519927,
            -0.2641207,
            -0.19227996,
            -0.21647257,
            0.064660825,
            -0.60208184,
            -0.027554952,
            -0.21946327,
            0.14817917,
            0.017545894,
            0.049888063,
            0.11709569,
            -0.4251653,
            0.2012801,
            0.43058586,
            -0.30201545,
            -0.040322073,
            0.08439325,
            0.081556246,
            0.25480998,
            0.46732026,
            0.021199577,
            0.027933657,
            -0.18455859,
            0.70943874,
            -0.5664504,
            -0.3907808,
            -0.2392958,
            0.025852174,
            -0.31858802,
            0.27264464,
            0.3306227,
            0.4845047,
            -0.11798124,
            0.00067410804,
            -0.012569226,
            0.15616283,
            0.69042605,
            -0.08243509,
            -0.2324889,
            0.1460418,
            -0.36629578,
            -0.0031198412,
            0.3070548,
            0.19117135,
            0.11664477,
            -0.3930875,
            -0.08009183,
            0.011854249,
            0.061414413,
            0.19298935,
            -0.076414466,
            0.15271334,
            -0.08663144,
            0.37643948,
            0.15872902
          ],
          [
            0.067314416,
            -0.18196659,
            -0.10892321,
            0.087918445,
            -0.368992,
            -0.026464418,
            0.20127311,
            0.3809616,
            -0.14665699,
            0.4016066,
            0.22160736,
            -0.23108189,
            0.26991415,
            0.717147,
            0.099220686,
            0.3211331,
            -0.10226625,
            -0.12282394,
            0.21274191,
            0.3964996,
            -0.39181787,
            -0.37681806,
            0.31349093,
            0.27911615,
            0.28351378,
            0.04183099,
            -0.044108458,
            -0.22683844,
            0.5681101,
            0.66294193,
            1.1216563,
            0.7898752,
            -0.18455857,
            0.044079885,
            -0.19281656,
            -0.068847016,
            -0.3640777,
            -0.09353438,
            0.3434055,
            0.0747813,
            -0.35344228,
            -0.12983385,
            0.8323114,
            0.63741773,
            0.65364397,
            -0.37173834,
            -0.34969416,
            -0.60646164,
            -0.102088615,
            0.08928611,
            -0.13906458,
            -0.38858268,
            -0.16870077,
            0.03150001,
            0.3946391,
            -0.47724012,
            0.34000218,
            0.11566627,
            0.28776753,
            -0.72352004,
            0.05184312,
            -0.33789852,
            -0.045961358,
            0.3499044,
            0.41815948,
            -0.2491837,
            -0.0023063272,
            -0.3789295,
            0.09971514,
            -0.2829522,
            0.15925068,
            0.09973101,
            -0.42367217,
            -0.31249988,
            0.451064,
            0.1057919,
            0.4975224,
            -0.66100764,
            -0.3016628,
            0.1885468,
            -0.2049011,
            0.14718656,
            0.24125753,
            -0.50471765,
            0.24884893,
            -0.37363884,
            -0.028074691,
            -0.8507149,
            0.41879722,
            -0.12915345,
            0.91085345,
            0.27820998,
            -0.34178346,
            -0.7133536,
            0.067647055,
            -0.15334398,
            -0.43635285,
            0.06137354,
            -0.049581677,
            0.10919286,
            -0.039399464,
            -0.45670384,
            -0.075608805,
            0.22100414,
            0.6928675,
            0.14005461,
            -0.08788712,
            0.26094663,
            -0.37748843,
            -0.07783734,
            0.100294754,
            -0.82552093,
            0.6861519,
            -0.37793833,
            0.41725084,
            -0.2627788,
            0.71082693,
            -0.44175968,
            0.07504911,
            -0.28993255,
            -0.44500464,
            -0.43394783,
            -0.17837664,
            0.1964389,
            0.2433052,
            0.69551843,
            -0.76803136,
            -0.061047323
          ],
          [
            -0.055514425,
            0.15471539,
            -0.07458314,
            0.65568566,
            1.2108388,
            0.41460708,
            -0.64806795,
            0.4816998,
            0.035185188,
            1.2025032,
            0.1425988,
            -0.030365946,
            0.82087284,
            -0.10597159,
            -0.51603836,
            0.41654706,
            -0.34129393,
            -0.31714216,
            -0.46403888,
            -0.7289182,
            0.6805005,
            0.26159406,
            -0.18860665,
            -0.2851356
          ]
        ],
        "biases": [
          [
            -0.12498972,
            0.042580552,
            -0.077541575,
            0.081171274,
            0.08814478,
            0.38856122,
            0.015776806,
            0.15751734,
            -0.5079725,
            0.031720154,
            0.23149824,
            0.041328922,
            -0.04738193,
            -0.039042346,
            0.14326127,
            0.12188777
          ],
          [
            0.28688046,
            -0.11627163,
            -0.0932364,
            0,
            -0.25305387,
            -0.093286365,
            0.026563834,
            0
          ],
          [
            -0.32150242,
            -0.078906685,
            -1.9153379
          ]
        ]
      }
    },
    {
      "entity_id": 102370,
      "fitness": 1998.2577,
      "children": 17,
      "kills": 0,
      "survival_sec": 15584.501,
      "foraging": 388.80762,
      "clade_id": 102370,
      "founder_archetype": "grazer",
      "diet": 0,
      "brain": {
        "layers": [
          28,
          16,
          8,
          3
        ],
        "weights": [
          [
            0.085402474,
            -0.6191722,
            0.10657692,
            0.7691933,
            -0.19776128,
            0.19882125,
            0.30028245,
            -0.065629974,
            0.5235797,
            0.32685685,
            0.4760552,
            0.20512748,
            -0.31847918,
            -0.06095044,
            -0.07988712,
            0.2882843,
            0.33811796,
            -0.3192592,
            -0.05900406,
            0.09463998,
            -0.5720055,
            -0.09254162,
            -0.5352544,
            0.14802359,
            0.17241576,
            0.041890346,
            -0.42167437,
            0.25390697,
            0.28218636,
            -0.19743441,
            -0.6015085,
            0.6299883,
            0.29849663,
            0.16895486,
            -0.22595307,
            -0.065633096,
            -0.32781583,
            0.17518885,
            0.41212094,
            0.08673245,
            -0.015153334,
            0.14922817,
            0.4427033,
            -0.050047684,
            0.16012655,
            -0.48162487,
            0.417683,
            -0.33074498,
            -0.2586702,
            -0.23837592,
            0.3685625,
            0.02786094,
            0.044445492,
            -0.25653172,
            -0.75152934,
            -0.40307587,
            0.10239379,
            -0.20106623,
            0.258769,
            -0.030058518,
            0.23133439,
            -0.12682651,
            -0.22021683,
            -0.049050175,
            -0.3115011,
            0.02703733,
            0.3095891,
            0.004648298,
            -0.14283359,
            0.5536722,
            -0.51682144,
            -0.21158442,
            0.12993784,
            0.17732963,
            0.18829632,
            0.16064614,
            0.37539005,
            0.08336825,
            -0.2144395,
            0.23930183,
            -0.3335308,
            0.15744369,
            -0.46615216,
            0.34313026,
            -0.19113773,
            -0.7540231,
            0.63635796,
            0.36585698,
            -0.1680398,
            -0.28281337,
            0.1440492,
            0.58325493,
            0.18008304,
            -0.02171255,
            -0.6907575,
            -0.046701204,
            0.16343121,
            0.018269,
            -0.06098908,
            -0.17650932,
            -0.027039416,
            -0.24456921,
            0.22919525,
            0.14923662,
            0.11025289,
            -0.4357779,
            -0.048606597,
            0.7476498,
            -0.022079837,
            -0.19532163,
            0.20625436,
            0.17697388,
            -0.18128684,
            -0.16703881,
            0.35210782,
            -0.07392599,
            -0.3738471,
            -0.10611815,
            -0.12975003,
            -0.606686,
            -0.06784082,
            -0.110185936,
            0.5286096,
            0.41508383,
            0.60890275,
            -0.03044387,
            -0.5305524,
            0.6645083,
            0.34107792,
            0.38444304,
            0.07921059,
            -0.4548471,
            -0.45664304,
            0.05859559,
            0.0052453205,
            0.23029087,
            -0.3125522,
            0.087556034,
            0.46083474,
            -0.046073034,
            -0.18735555,
            -0.8125035,
            -0.167748,
            0.51556206,
            0.53573376,
            -0.15049955,
            -0.015389875,
            -0.2763878,
            0.512507,
            -0.14143358,
            -0.42256486,
            0.15981002,
            0.41899097,
            -0.22523098,
            0.12178209,
            -0.7467011,
            -0.099644884,
            -0.10126931,
            0.08386123,
            -0.24059668,
            -0.22057734,
            -0.20418489,
            -0.57487977,
            -0.17857096,
            0.1902156,
            0.307295,
            0.23431852,
            0.029619887,
            -0.018336084,
            -0.5119074,
            -0.39722633,
            -0.004367739,
            0.34224886,
            0.32737738,
            0.012660876,
            0.29140678,
            -0.22459462,
            0.28360426,
            -0.12729558,
            -0.4460853,
            0.7348405,
            0.24150553,
            -0.40771118,
            1.315588,
            -0.29945326,
            0.02747782,
            0.18863226,
